digraph Tree {
node [shape=box, style="filled", color="black", fontname="helvetica"] ;
edge [fontname="helvetica"] ;
rankdir=LR ;
0 [label="X[26] <= -0.031\ngini = 0.779\nsamples = 120000\nvalue = [403, 14306, 17806, 1851, 1570, 1875, 2789, 2814, 1977\n463, 50221, 498, 2568, 636, 7300, 4384, 1130, 3202\n1114, 3093]", fillcolor="#c0e0f7"] ;
1 [label="X[31] <= -0.489\ngini = 0.871\nsamples = 67377\nvalue = [248, 12490, 15324, 1331, 1237, 1193, 2474, 1164, 1556\n280, 10102, 309, 2121, 412, 6509, 3976, 858, 2756\n799, 2238]", fillcolor="#fefef5"] ;
0 -> 1 [labeldistance=2.5, labelangle=-45, headlabel="True"] ;
2 [label="X[5] <= 0.5\ngini = 0.819\nsamples = 28592\nvalue = [130, 1967, 10938, 744, 982, 859, 1827, 885, 1013\n102, 3255, 153, 838, 148, 1685, 1486, 248, 518, 168\n646]", fillcolor="#f6f7c3"] ;
1 -> 2 ;
3 [label="X[16] <= 0.5\ngini = 0.777\nsamples = 24981\nvalue = [120, 1383, 10916, 315, 523, 839, 1814, 689, 944, 86\n3035, 143, 819, 103, 892, 1090, 184, 301, 150, 635]", fillcolor="#f5f6b8"] ;
2 -> 3 ;
4 [label="(...)", fillcolor="#C0C0C0"] ;
3 -> 4 ;
1103 [label="(...)", fillcolor="#C0C0C0"] ;
3 -> 1103 ;
1158 [label="X[18] <= 0.5\ngini = 0.872\nsamples = 3611\nvalue = [10, 584, 22, 429, 459, 20, 13, 196, 69, 16, 220\n10, 19, 45, 793, 396, 64, 217, 18, 11]", fillcolor="#f9f1fd"] ;
2 -> 1158 ;
1159 [label="(...)", fillcolor="#C0C0C0"] ;
1158 -> 1159 ;
1902 [label="(...)", fillcolor="#C0C0C0"] ;
1158 -> 1902 ;
2121 [label="X[23] <= -0.813\ngini = 0.855\nsamples = 38785\nvalue = [118, 10523, 4386, 587, 255, 334, 647, 279, 543, 178\n6847, 156, 1283, 264, 4824, 2490, 610, 2238, 631\n1592]", fillcolor="#fcf6e8"] ;
1 -> 2121 ;
2122 [label="X[18] <= 0.5\ngini = 0.764\nsamples = 11801\nvalue = [34, 2779, 835, 106, 97, 99, 162, 90, 157, 58, 4809\n46, 196, 76, 769, 434, 134, 216, 166, 538]", fillcolor="#d2e9f9"] ;
2121 -> 2122 ;
2123 [label="(...)", fillcolor="#C0C0C0"] ;
2122 -> 2123 ;
3222 [label="(...)", fillcolor="#C0C0C0"] ;
2122 -> 3222 ;
3515 [label="X[18] <= 0.5\ngini = 0.856\nsamples = 26984\nvalue = [84, 7744, 3551, 481, 158, 235, 485, 189, 386, 120\n2038, 110, 1087, 188, 4055, 2056, 476, 2022, 465\n1054]", fillcolor="#fbf3df"] ;
2121 -> 3515 ;
3516 [label="(...)", fillcolor="#C0C0C0"] ;
3515 -> 3516 ;
4929 [label="(...)", fillcolor="#C0C0C0"] ;
3515 -> 4929 ;
5418 [label="X[23] <= -0.701\ngini = 0.413\nsamples = 52623\nvalue = [155, 1816, 2482, 520, 333, 682, 315, 1650, 421, 183\n40119, 189, 447, 224, 791, 408, 272, 446, 315, 855]", fillcolor="#6ab5eb"] ;
0 -> 5418 [labeldistance=2.5, labelangle=45, headlabel="False"] ;
5419 [label="X[61] <= 0.075\ngini = 0.333\nsamples = 46759\nvalue = [140, 1135, 1276, 426, 256, 494, 263, 1492, 301, 168\n38095, 175, 346, 192, 473, 305, 213, 248, 260, 501]", fillcolor="#5fb0ea"] ;
5418 -> 5419 ;
5420 [label="X[29] <= -0.812\ngini = 0.308\nsamples = 45505\nvalue = [138, 985, 1017, 421, 251, 441, 243, 1386, 275, 160\n37794, 170, 309, 182, 469, 296, 197, 210, 242, 319]", fillcolor="#5caeea"] ;
5419 -> 5420 ;
5421 [label="(...)", fillcolor="#C0C0C0"] ;
5420 -> 5421 ;
5612 [label="(...)", fillcolor="#C0C0C0"] ;
5420 -> 5612 ;
6821 [label="X[20] <= 0.5\ngini = 0.852\nsamples = 1254\nvalue = [2, 150, 259, 5, 5, 53, 20, 106, 26, 8, 301, 5\n37, 10, 4, 9, 16, 38, 18, 182]", fillcolor="#f7fbfe"] ;
5419 -> 6821 ;
6822 [label="(...)", fillcolor="#C0C0C0"] ;
6821 -> 6822 ;
7155 [label="(...)", fillcolor="#C0C0C0"] ;
6821 -> 7155 ;
7298 [label="X[26] <= 0.237\ngini = 0.814\nsamples = 5864\nvalue = [15, 681, 1206, 94, 77, 188, 52, 158, 120, 15, 2024\n14, 101, 32, 318, 103, 59, 198, 55, 354]", fillcolor="#dceefa"] ;
5418 -> 7298 ;
7299 [label="X[25] <= 1.143\ngini = 0.847\nsamples = 4559\nvalue = [12, 640, 1087, 86, 70, 147, 45, 134, 86, 10, 1128\n11, 84, 29, 301, 96, 52, 186, 40, 315]", fillcolor="#fdfeff"] ;
7298 -> 7299 ;
7300 [label="(...)", fillcolor="#C0C0C0"] ;
7299 -> 7300 ;
8033 [label="(...)", fillcolor="#C0C0C0"] ;
7299 -> 8033 ;
8608 [label="X[56] <= -0.316\ngini = 0.516\nsamples = 1305\nvalue = [3, 41, 119, 8, 7, 41, 7, 24, 34, 5, 896, 3, 17\n3, 17, 7, 7, 12, 15, 39]", fillcolor="#7dbfee"] ;
7298 -> 8608 ;
8609 [label="(...)", fillcolor="#C0C0C0"] ;
8608 -> 8609 ;
8788 [label="(...)", fillcolor="#C0C0C0"] ;
8608 -> 8788 ;
}
